<?xml version="1.0"?>
<opencv_storage>
<cascade>
  <stageType>BOOST</stageType>
  <featureType>HAAR</featureType>
  <height>80</height>
  <width>40</width>
  <stageParams>
    <boostType>GAB</boostType>
    <minHitRate>9.9900001287460327e-001</minHitRate>
    <maxFalseAlarm>5.0000000000000000e-001</maxFalseAlarm>
    <weightTrimRate>9.4999999999999996e-001</weightTrimRate>
    <maxDepth>1</maxDepth>
    <maxWeakCount>100</maxWeakCount></stageParams>
  <featureParams>
    <maxCatCount>0</maxCatCount>
    <featSize>1</featSize>
    <mode>ALL</mode></featureParams>
  <stageNum>19</stageNum>
  <stages>
    <!-- stage 0 -->
    <_>
      <maxWeakCount>1</maxWeakCount>
      <stageThreshold>1.</stageThreshold>
      <weakClassifiers>
        <_>
          <internalNodes>
            0 -1 0 -3.4603136777877808e-001</internalNodes>
          <leafValues>
            -1. 1.</leafValues></_></weakClassifiers></_>
    <!-- stage 1 -->
    <_>
      <maxWeakCount>1</maxWeakCount>
      <stageThreshold>1.</stageThreshold>
      <weakClassifiers>
        <_>
          <internalNodes>
            0 -1 2 -3.0318357050418854e-002</internalNodes>
          <leafValues>
            1. -1.</leafValues></_></weakClassifiers></_>
    <!-- stage 2 -->
    <_>
      <maxWeakCount>1</maxWeakCount>
      <stageThreshold>9.9137932062149048e-001</stageThreshold>
      <weakClassifiers>
        <_>
          <internalNodes>
            0 -1 3 -7.1176283061504364e-002</internalNodes>
          <leafValues>
            9.9137932062149048e-001 -1.</leafValues></_></weakClassifiers></_>
    <!-- stage 3 -->
    <_>
      <maxWeakCount>1</maxWeakCount>
      <stageThreshold>1.</stageThreshold>
      <weakClassifiers>
        <_>
          <internalNodes>
            0 -1 16 -2.3925694404169917e-004</internalNodes>
          <leafValues>
            1. -1.</leafValues></_></weakClassifiers></_>
    <!-- stage 4 -->
    <_>
      <maxWeakCount>1</maxWeakCount>
      <stageThreshold>1.</stageThreshold>
      <weakClassifiers>
        <_>
          <internalNodes>
            0 -1 12 -2.0755119621753693e-003</internalNodes>
          <leafValues>
            1. -1.</leafValues></_></weakClassifiers></_>
    <!-- stage 5 -->
    <_>
      <maxWeakCount>1</maxWeakCount>
      <stageThreshold>9.8283261060714722e-001</stageThreshold>
      <weakClassifiers>
        <_>
          <internalNodes>
            0 -1 15 6.4025766914710402e-004</internalNodes>
          <leafValues>
            -1. 9.8283261060714722e-001</leafValues></_></weakClassifiers></_>
    <!-- stage 6 -->
    <_>
      <maxWeakCount>1</maxWeakCount>
      <stageThreshold>9.6595746278762817e-001</stageThreshold>
      <weakClassifiers>
        <_>
          <internalNodes>
            0 -1 11 -1.8046221230179071e-003</internalNodes>
          <leafValues>
            -1. 9.6595746278762817e-001</leafValues></_></weakClassifiers></_>
    <!-- stage 7 -->
    <_>
      <maxWeakCount>2</maxWeakCount>
      <stageThreshold>1.0499129444360733e-001</stageThreshold>
      <weakClassifiers>
        <_>
          <internalNodes>
            0 -1 8 1.4216809067875147e-003</internalNodes>
          <leafValues>
            -8.6666667461395264e-001 9.9134200811386108e-001</leafValues></_>
        <_>
          <internalNodes>
            0 -1 7 -2.0089626777917147e-003</internalNodes>
          <leafValues>
            -1. 9.7165799140930176e-001</leafValues></_></weakClassifiers></_>
    <!-- stage 8 -->
    <_>
      <maxWeakCount>1</maxWeakCount>
      <stageThreshold>9.6595746278762817e-001</stageThreshold>
      <weakClassifiers>
        <_>
          <internalNodes>
            0 -1 9 2.9032252728939056e-002</internalNodes>
          <leafValues>
            9.6595746278762817e-001 -1.</leafValues></_></weakClassifiers></_>
    <!-- stage 9 -->
    <_>
      <maxWeakCount>1</maxWeakCount>
      <stageThreshold>9.7435897588729858e-001</stageThreshold>
      <weakClassifiers>
        <_>
          <internalNodes>
            0 -1 13 1.4552805805578828e-003</internalNodes>
          <leafValues>
            9.7435897588729858e-001 -1.</leafValues></_></weakClassifiers></_>
    <!-- stage 10 -->
    <_>
      <maxWeakCount>2</maxWeakCount>
      <stageThreshold>5.3840644657611847e-002</stageThreshold>
      <weakClassifiers>
        <_>
          <internalNodes>
            0 -1 20 -3.1288375612348318e-004</internalNodes>
          <leafValues>
            -7.3333334922790527e-001 9.8268395662307739e-001</leafValues></_>
        <_>
          <internalNodes>
            0 -1 21 -1.9823585171252489e-004</internalNodes>
          <leafValues>
            -9.2884331941604614e-001 9.6831291913986206e-001</leafValues></_></weakClassifiers></_>
    <!-- stage 11 -->
    <_>
      <maxWeakCount>1</maxWeakCount>
      <stageThreshold>9.8283261060714722e-001</stageThreshold>
      <weakClassifiers>
        <_>
          <internalNodes>
            0 -1 17 -3.1102674256544560e-005</internalNodes>
          <leafValues>
            -1. 9.8283261060714722e-001</leafValues></_></weakClassifiers></_>
    <!-- stage 12 -->
    <_>
      <maxWeakCount>1</maxWeakCount>
      <stageThreshold>9.9137932062149048e-001</stageThreshold>
      <weakClassifiers>
        <_>
          <internalNodes>
            0 -1 1 3.9238817989826202e-002</internalNodes>
          <leafValues>
            9.9137932062149048e-001 -1.</leafValues></_></weakClassifiers></_>
    <!-- stage 13 -->
    <_>
      <maxWeakCount>2</maxWeakCount>
      <stageThreshold>1.1944260448217392e-001</stageThreshold>
      <weakClassifiers>
        <_>
          <internalNodes>
            0 -1 10 -5.7856664061546326e-003</internalNodes>
          <leafValues>
            -8.3333331346511841e-001 9.6581196784973145e-001</leafValues></_>
        <_>
          <internalNodes>
            0 -1 19 -1.7735930159687996e-003</internalNodes>
          <leafValues>
            9.5277595520019531e-001 -1.</leafValues></_></weakClassifiers></_>
    <!-- stage 14 -->
    <_>
      <maxWeakCount>2</maxWeakCount>
      <stageThreshold>3.5821307450532913e-002</stageThreshold>
      <weakClassifiers>
        <_>
          <internalNodes>
            0 -1 6 -5.4696351289749146e-002</internalNodes>
          <leafValues>
            9.7413790225982666e-001 -7.1428573131561279e-001</leafValues></_>
        <_>
          <internalNodes>
            0 -1 18 -2.2193592041730881e-002</internalNodes>
          <leafValues>
            9.5748549699783325e-001 -9.3831664323806763e-001</leafValues></_></weakClassifiers></_>
    <!-- stage 15 -->
    <_>
      <maxWeakCount>1</maxWeakCount>
      <stageThreshold>9.7435897588729858e-001</stageThreshold>
      <weakClassifiers>
        <_>
          <internalNodes>
            0 -1 23 -3.7543524522334337e-003</internalNodes>
          <leafValues>
            9.7435897588729858e-001 -1.</leafValues></_></weakClassifiers></_>
    <!-- stage 16 -->
    <_>
      <maxWeakCount>1</maxWeakCount>
      <stageThreshold>9.7435897588729858e-001</stageThreshold>
      <weakClassifiers>
        <_>
          <internalNodes>
            0 -1 14 2.2227630019187927e-002</internalNodes>
          <leafValues>
            9.7435897588729858e-001 -1.</leafValues></_></weakClassifiers></_>
    <!-- stage 17 -->
    <_>
      <maxWeakCount>2</maxWeakCount>
      <stageThreshold>3.8459122180938721e-002</stageThreshold>
      <weakClassifiers>
        <_>
          <internalNodes>
            0 -1 4 -3.1812890665605664e-004</internalNodes>
          <leafValues>
            -8.4615385532379150e-001 9.7424894571304321e-001</leafValues></_>
        <_>
          <internalNodes>
            0 -1 22 6.7298859357833862e-004</internalNodes>
          <leafValues>
            9.6206718683242798e-001 -9.3578982353210449e-001</leafValues></_></weakClassifiers></_>
    <!-- stage 18 -->
    <_>
      <maxWeakCount>1</maxWeakCount>
      <stageThreshold>9.6595746278762817e-001</stageThreshold>
      <weakClassifiers>
        <_>
          <internalNodes>
            0 -1 5 6.2199751846492290e-004</internalNodes>
          <leafValues>
            9.6595746278762817e-001 -1.</leafValues></_></weakClassifiers></_></stages>
  <features>
    <_>
      <rects>
        <_>
          0 2 40 78 -1.</_>
        <_>
          0 41 40 39 2.</_></rects>
      <tilted>0</tilted></_>
    <_>
      <rects>
        <_>
          0 7 17 28 -1.</_>
        <_>
          0 14 17 14 2.</_></rects>
      <tilted>0</tilted></_>
    <_>
      <rects>
        <_>
          0 15 34 51 -1.</_>
        <_>
          0 32 34 17 3.</_></rects>
      <tilted>0</tilted></_>
    <_>
      <rects>
        <_>
          0 23 40 41 -1.</_>
        <_>
          10 23 20 41 2.</_></rects>
      <tilted>0</tilted></_>
    <_>
      <rects>
        <_>
          1 8 2 13 -1.</_>
        <_>
          2 8 1 13 2.</_></rects>
      <tilted>0</tilted></_>
    <_>
      <rects>
        <_>
          1 39 4 5 -1.</_>
        <_>
          3 39 2 5 2.</_></rects>
      <tilted>0</tilted></_>
    <_>
      <rects>
        <_>
          3 16 36 18 -1.</_>
        <_>
          15 22 12 6 9.</_></rects>
      <tilted>0</tilted></_>
    <_>
      <rects>
        <_>
          4 45 3 34 -1.</_>
        <_>
          4 62 3 17 2.</_></rects>
      <tilted>0</tilted></_>
    <_>
      <rects>
        <_>
          9 29 18 12 -1.</_>
        <_>
          9 29 9 6 2.</_>
        <_>
          18 35 9 6 2.</_></rects>
      <tilted>0</tilted></_>
    <_>
      <rects>
        <_>
          14 38 26 16 -1.</_>
        <_>
          14 46 26 8 2.</_></rects>
      <tilted>0</tilted></_>
    <_>
      <rects>
        <_>
          15 25 13 36 -1.</_>
        <_>
          15 37 13 12 3.</_></rects>
      <tilted>0</tilted></_>
    <_>
      <rects>
        <_>
          15 49 8 9 -1.</_>
        <_>
          15 49 4 9 2.</_></rects>
      <tilted>1</tilted></_>
    <_>
      <rects>
        <_>
          16 20 12 15 -1.</_>
        <_>
          20 20 4 15 3.</_></rects>
      <tilted>0</tilted></_>
    <_>
      <rects>
        <_>
          16 38 2 8 -1.</_>
        <_>
          16 38 2 4 2.</_></rects>
      <tilted>1</tilted></_>
    <_>
      <rects>
        <_>
          18 15 15 6 -1.</_>
        <_>
          18 15 15 3 2.</_></rects>
      <tilted>1</tilted></_>
    <_>
      <rects>
        <_>
          21 26 2 22 -1.</_>
        <_>
          21 37 2 11 2.</_></rects>
      <tilted>0</tilted></_>
    <_>
      <rects>
        <_>
          22 60 6 14 -1.</_>
        <_>
          22 60 3 14 2.</_></rects>
      <tilted>1</tilted></_>
    <_>
      <rects>
        <_>
          22 73 3 1 -1.</_>
        <_>
          23 73 1 1 3.</_></rects>
      <tilted>0</tilted></_>
    <_>
      <rects>
        <_>
          23 12 14 18 -1.</_>
        <_>
          17 18 14 6 3.</_></rects>
      <tilted>1</tilted></_>
    <_>
      <rects>
        <_>
          23 19 6 12 -1.</_>
        <_>
          19 23 6 4 3.</_></rects>
      <tilted>1</tilted></_>
    <_>
      <rects>
        <_>
          23 71 12 2 -1.</_>
        <_>
          26 71 6 2 2.</_></rects>
      <tilted>0</tilted></_>
    <_>
      <rects>
        <_>
          26 2 3 3 -1.</_>
        <_>
          27 3 1 1 9.</_></rects>
      <tilted>0</tilted></_>
    <_>
      <rects>
        <_>
          27 69 1 6 -1.</_>
        <_>
          25 71 1 2 3.</_></rects>
      <tilted>1</tilted></_>
    <_>
      <rects>
        <_>
          39 27 1 36 -1.</_>
        <_>
          30 36 1 18 2.</_></rects>
      <tilted>1</tilted></_></features></cascade>
</opencv_storage>
